svm_type c_svc
kernel_type linear
nr_class 10
total_sv 60
rho 0.0358201 0.350132 0.960733 0.185797 0.828629 1.01556 0.611609 0.691853 0.668266 -0.157576 0.269506 1.07033 0.872278 0.175256 0.792189 0.917937 0.572147 0.973489 0.604317 1.26553 1.22877 0.785085 0.745438 0.744785 -0.235116 0.335467 0.817663 0.362794 0.756988 0.141386 0.952774 0.43521 0.113528 0.388139 0.306965 -0.730677 -0.219818 -0.449466 -0.140633 0.0139855 0.40358 -0.300875 0.415918 -0.488806 -0.491989
label 0 1 2 3 4 5 6 7 8 9
probA -1.83885 -1.2944 -1.16271 -1.47927 -1.45224 -1.28959 -1.43169 -1.35328 -1.41671 -1.82574 -1.58538 -1.28408 -1.44415 -1.57111 -1.65468 -1.49449 -1.53027 -1.19485 -1.62054 -0.984028 -1.18876 -1.02664 -1.04808 -1.07186 -1.50751 -1.2089 -1.10595 -1.01832 -1.02598 -1.05264 -1.535 -1.48018 -1.50686 -1.36432 -1.2045 -1.26729 -1.63071 -1.05871 -1.43613 -1.40584 -1.35873 -1.52348 -0.994379 -1.11382 -1.21129
probB 0.171552 -0.315707 -0.415247 -0.338778 -0.0726508 -0.362872 0.166171 0.00092607 -0.323179 -0.0586369 -0.288935 -0.323235 -0.368418 -0.18866 -0.138496 -0.193038 -0.0657433 -0.0775596 -0.0241181 -0.45539 -0.198389 -0.00437085 0.0561074 -0.236304 -0.0182122 0.136458 -0.162451 0.018012 -0.110326 0.158763 -0.0246389 -0.353874 0.070949 -0.041625 -0.179238 -0.11444 0.14643 -0.452314 0.0460413 0.226232 0.0733582 0.00731171 -0.161089 0.154266 -0.193757
nr_sv 8 7 6 4 6 8 5 7 5 4
SV
0 0 0 0.01188567424739806 0.0138341568559636 0.0162724143496412 0.005341700072323281 0.005554187613477203 0.003413979082494264 1:0.0041210877 2:0.32286894 3:0.56269727 4:-0.28998127 5:0.11690167 6:-0.90497777 7:-0.073004978 8:-0.10466623 9:0.37166534 10:-0.55481607 11:0.2193901 12:1.154034 13:0.11645216 14:-1.694273 15:0.1519446 16:1.3035914 17:-0.21008788 18:-0.99506517 19:0.20532205 20:0.75054907 21:0.20827098 22:-1.023829 23:-0.83115503 24:-0.61090498 25:-0.6361367 26:-0.50344425 27:-0.98146108 28:-0.76333126 29:1.2887152 30:-1.0603644 31:-1.0634316 32:0.9906361 33:-1.2964149 34:0.094675117 35:-0.69482528 36:0.73851351 37:-0.99363204 38:0.46340732 39:0.18171552 40:0.95141189 41:0.039316273 42:0.085441261 43:0.91056449 44:-1.3789732 45:-0.21450712 46:0.73395441 47:-1.0848279 48:0.23378343 49:-0.33035488 50:-1.0744283 51:-0.75193857 52:-1.3835286 53:0.10526526 54:-0.99145852 55:-0.022823808 56:-1.1494011 57:-0.80992867 58:-0.56863189 59:-0.86144042 60:-0.52571847 61:-1.1020494 62:-0.94233663 63:1.5402732 64:-0.92716751 65:-1.0271538 66:2.4776187 67:-1.2440036 68:1.0478186 
0 0 0.001906401565069056 0 0 0 0.004980720133191153 0.009662942642273088 0.0004157615680887852 1:-0.85936417 2:0.32059499 3:0.52931113 4:-0.79541074 5:0.01366326 6:-1.1133104 7:-0.18107084 8:-1.0196231 9:0.32942788 10:-0.13395968 11:0.23029174 12:1.253445 13:0.09771959 14:-1.4118714 15:0.12753 16:1.5060472 17:-0.20304769 18:-1.2260594 19:-0.096064374 20:0.81569493 21:0.1380451 22:-1.0003231 23:-0.85957874 24:-0.61419144 25:-0.60883417 26:1.4734891 27:-0.92237447 28:-0.7697757 29:1.4003933 30:-1.0929338 31:-1.0610715 32:-0.83088718 33:-1.2446044 34:-0.15457416 35:0.56364347 36:0.73575623 37:-0.92256945 38:1.4375629 39:0.0057787667 40:0.56980242 41:-0.11867912 42:-0.96025667 43:1.0376568 44:-1.1741399 45:-0.10922343 46:0.66733737 47:-1.1266929 48:0.91326143 49:-0.2746281 50:-1.2879515 51:-0.73850021 52:-1.1400362 53:-0.68582594 54:-1.1427902 55:0.31173452 56:-1.0988406 57:-0.84413517 58:-0.5660132 59:-0.86880651 60:1.875652 61:-0.93710718 62:-0.92343911 63:1.7056097 64:-1.0167896 65:-1.027764 66:-0.75926314 67:-1.1275452 68:0.62304149 
0 0 0.0009051911989246913 0 0 0 0.007206175418714135 0.008537676748584399 0.0002453671414103485 1:0.37047015 2:0.32633484 3:0.55713628 4:0.41413241 5:0.16349935 6:1.0824647 7:0.23022807 8:1.3316337 9:0.3927447 10:-1.3073163 11:0.32866054 12:1.0938751 13:0.21490606 14:-1.4603299 15:0.41950756 16:1.5633168 17:-0.19917564 18:-1.3684445 19:-0.16127377 20:0.68622764 21:0.11263615 22:-1.0009871 23:-0.84732802 24:1.4749935 25:-0.60808207 26:-0.50624647 27:-0.98442327 28:-0.7882012 29:1.268194 30:-1.1232494 31:-1.1060185 32:-0.83069321 33:-1.2399263 34:0.54660362 35:2.287463 36:0.74273024 37:-0.97724325 38:-1.1556621 39:0.42273277 40:-0.58322997 41:0.48330267 42:1.7269785 43:0.82395988 44:-1.3753148 45:-0.20971496 46:0.59451906 47:-0.89508659 48:1.2935993 49:-0.92909531 50:-1.2194602 51:-0.81039059 52:-1.0919981 53:-1.0217488 54:-0.93285589 55:0.25334089 56:-1.071776 57:-0.83009909 58:2.3010789 59:-0.88262403 60:-0.52840299 61:-1.1079882 62:-0.91321666 63:1.6413741 64:-1.0681794 65:-1.1404807 66:-0.75715617 67:-1.0856054 68:1.7710802 
0 0 0.000714221458842684 0 0.001044967515092109 0.0007968033899306549 0 0 0 1:-1.3056042 2:-0.35649436 3:0.83852755 4:-0.42047473 5:-0.41065958 6:-0.84536803 7:0.74885682 8:-0.4637412 9:-0.64027953 10:-1.1397778 11:-0.65790108 12:2.0156877 13:1.2319766 14:-0.46934981 15:0.97468449 16:0.77328009 17:-0.79336674 18:-1.2040476 19:0.31541153 20:1.0568698 21:-0.59467361 22:-1.0941465 23:-0.87994998 24:-0.62007306 25:-0.65855922 26:-0.50318804 27:-0.99173689 28:-0.81732927 29:0.6695143 30:-1.1367752 31:-1.1177099 32:2.1664187 33:-1.3312856 34:1.0433805 35:0.68700721 36:0.99100727 37:-1.1392301 38:0.32867769 39:1.8119047 40:0.41676685 41:0.65931253 42:0.18501719 43:0.5996428 44:-0.62813852 45:1.4543394 46:2.9958653 47:1.7928068 48:-1.3544355 49:0.99322912 50:-0.52457681 51:0.13762528 52:-1.2799405 53:-0.14914618 54:-1.1405067 55:-1.1239369 56:-1.2688503 57:-0.88057088 58:-0.56551141 59:-0.8235756 60:-0.52665671 61:-1.0433545 62:-0.82704908 63:1.8823532 64:-1.0864162 65:-1.1529822 66:3.0070231 67:-1.2757359 68:1.4425116 
0 0 0 0 0 0 0 0 0.001894716067297843 1:-0.33346685 2:-0.35527496 3:0.87125437 4:-0.2061143 5:-0.14227966 6:0.23139516 7:2.0316418 8:0.61348371 9:-0.57721465 10:-1.2910379 11:-0.76659274 12:2.0164756 13:1.1897465 14:-0.53373524 15:1.1459279 16:0.60869148 17:-0.99264282 18:-1.3072455 19:0.37067755 20:1.0239128 21:-0.35179772 22:-1.0957249 23:-0.90483837 24:2.6354217 25:-0.66087799 26:-0.5050351 27:-1.0016365 28:-0.84612865 29:0.64328043 30:-1.150951 31:-1.1214661 32:-0.83587994 33:-1.3546969 34:1.6064567 35:2.4932383 36:0.99310789 37:-1.0848564 38:-1.3455334 39:1.4354118 40:1.2445295 41:1.9865769 42:1.9261303 43:0.54553794 44:-1.6742505 45:1.2469458 46:2.5407892 47:1.0304417 48:-0.73929639 49:0.81921058 50:-1.0789442 51:-0.94760749 52:-0.99856141 53:-0.10566038 54:-0.97345124 55:-1.4373345 56:-1.2719311 57:-0.92064668 58:2.5910562 59:-0.83310359 60:-0.5253851 61:-1.0309025 62:-0.78499838 63:1.8547265 64:-1.057894 65:-1.1498563 66:-0.76111286 67:-1.2402798 68:2.0866672 
0.001657163236273298 0 0 0 0 0 0 0 0 1:1.0799624 2:-0.61558238 3:-1.2026864 4:1.2963278 5:0.57819797 6:0.20358557 7:-0.37501403 8:0.30570516 9:-0.65884078 10:-1.9051449 11:0.96065116 12:0.50769876 13:-0.15047012 14:-1.2916919 15:-0.003834631 16:1.290505 17:-0.10265486 18:-1.4862522 19:0.15128984 20:1.0497747 21:-0.097229475 22:0.52298239 23:1.6593193 24:-0.38212492 25:1.4292831 26:-0.30249446 27:0.55389396 28:1.0621533 29:0.72032736 30:0.055362487 31:0.19242027 32:-0.68283455 33:0.39600529 34:-1.3169139 35:-0.51998956 36:-1.3712811 37:1.0681104 38:-1.0021375 39:-1.0383322 40:-0.89467046 41:-0.39575142 42:-0.33757058 43:-1.5010726 44:0.4370448 45:-1.0857494 46:-0.059209532 47:-0.61555103 48:-0.20351251 49:-0.50071972 50:-1.003887 51:-0.61407363 52:-1.0853413 53:-0.66480359 54:-0.68164725 55:-0.36349942 56:0.59412801 57:2.4937023 58:-0.41860168 59:1.3060811 60:-0.40370014 61:1.2375127 62:1.0035103 63:-0.097912913 64:0.038834196 65:0.68196971 66:-0.6879696 67:1.4878819 68:-1.1652809 
0.2480005170138208 0.3235266242095506 0.2545977227587148 0.2815281003271947 0.3411829878436922 0.3327782006988531 0.2002585789659462 0.150213820748178 0.1402895662122767 1:0.65828955 2:-2.0585547 3:-2.4176147 4:1.8652274 5:1.8799632 6:-0.51330173 7:-0.53166077 8:-1.1100761 9:-1.9467358 10:-0.91788029 11:1.9596687 12:-0.69288615 13:-0.1631413 14:-0.45850219 15:-0.22938039 16:1.098211 17:-0.16761243 18:-1.5714486 19:0.49537185 20:0.73000655 21:-0.68213643 22:1.4339041 23:2.0587118 24:-0.25474819 25:2.3498547 26:-0.24273831 27:1.1832365 28:2.6554013 29:0.70147149 30:1.3721147 31:1.3642108 32:-0.57519358 33:0.55262041 34:-1.2036917 35:-0.4509544 36:-1.5417506 37:1.0264614 38:-1.0373827 39:-1.1372186 40:-0.96738675 41:-0.59973273 42:-0.49225825 43:-1.6507667 44:-0.30185917 45:-1.0987935 46:-0.29908081 47:-0.78606058 48:-0.30704011 49:-0.45985562 50:-0.84928709 51:-0.54062872 52:-1.0711006 53:-0.69983289 54:-0.78502649 55:-0.25547955 56:1.033633 57:1.6239914 58:-0.39390281 59:1.8623228 60:-0.41890507 61:1.7146569 62:1.8214035 63:0.56245813 64:1.4130236 65:2.0106238 66:-0.62495018 67:0.79823723 68:-1.1161762 
0.0426485162674974 0.08628349133024014 0.09527325267611284 0.04228872134592734 0.07866638697463946 0.04814794145983584 0.1929614416271989 0.2137915186058611 0.1683710926329309 1:0.9370259 2:-1.2407313 3:-1.3875846 4:1.4384912 5:1.3853139 6:0.052855111 7:-0.4645669 8:-0.30985193 9:-1.1911426 10:-1.4197918 11:1.4885864 12:-0.10906825 13:-0.41168993 14:-0.89501803 15:-0.019755994 16:1.1880095 17:-0.18127545 18:-1.5201394 19:0.36958992 20:0.88309968 21:-0.38130361 22:0.46312746 23:1.2524278 24:0.69810423 25:1.2464313 26:-0.34355927 27:0.50903587 28:1.0576178 29:0.89494717 30:0.22267461 31:0.090533997 32:-0.66906768 33:-0.045041723 34:-0.35472423 35:-0.71794081 36:-1.8118514 37:0.58290384 38:-1.167913 39:-1.2589386 40:-1.2205326 41:-0.5491583 42:-0.7437457 43:-1.8840061 44:0.07637662 45:-1.22796 46:-0.44757752 47:-0.55048868 48:-0.71856823 49:-0.33731955 50:-1.0805547 51:-0.82633459 52:-1.0713228 53:-0.74844876 54:-0.66770835 55:-0.52928785 56:0.33961067 57:1.2748141 58:-0.18866209 59:1.3040276 60:-0.45322629 61:0.74216083 62:0.98995319 63:0.077847513 64:0.20981748 65:0.28670362 66:-0.64814731 67:0.56609086 68:-0.90515998 
-0 0 0.004091311347299488 0 0 0.00424163112580106 0.000290125883782863 0.001792021966007311 0.006401309831903363 1:-0.88402937 2:0.32299333 3:0.52061438 4:-0.92243925 5:-0.59195006 6:-1.1407058 7:-0.23640345 8:-1.0663106 9:0.20429788 10:0.10893366 11:-1.2847681 12:-0.79660415 13:-0.056861263 14:-0.56036843 15:1.1900303 16:0.20577522 17:-2.1507382 18:0.18752954 19:1.8535693 20:-0.79275737 21:-1.157696 22:-0.98521368 23:-0.78268849 24:-0.62374077 25:-0.72038945 26:1.3941065 27:0.89529859 28:-0.35012473 29:-0.84447721 30:1.1917894 31:-1.044975 32:-0.83107947 33:-1.3237976 34:-0.22728541 35:0.7094635 36:0.73833645 37:-1.1097972 38:1.7617437 39:0.36080911 40:0.51224684 41:-0.19663423 42:-1.0136154 43:0.94795981 44:-0.37241463 45:0.7952236 46:-1.0297773 47:-1.2518964 48:-0.73081458 49:0.38281835 50:-0.020017707 51:3.04655 52:-0.029039496 53:0.63431386 54:-0.13424111 55:-1.2745676 56:-1.055797 57:-0.83692703 58:-0.56396056 59:-0.92397133 60:1.7591903 61:1.4546491 62:-0.67217326 63:-0.96247127 64:1.6577116 65:-1.0660162 66:-0.75174635 67:-1.2477299 68:0.53967395 
-0 0 0 0 0 0 0 0.0008894804460810875 0 1:1.017638 2:0.33075126 3:-0.12295791 4:0.22398934 5:-1.0297845 6:1.2663032 7:-0.16801299 8:1.0743859 9:0.26054793 10:1.0820933 11:-1.5956482 12:-0.3459873 13:-0.33169306 14:-0.51212813 15:1.3514416 16:0.11738267 17:-2.3739329 18:0.21046474 19:2.0585499 20:-0.61936213 21:-1.533677 22:-0.82784183 23:-0.64655576 24:0.73962623 25:-0.41446848 26:-0.47577269 27:1.3845726 28:0.20106003 29:-0.74802989 30:1.8123735 31:-0.90536976 32:-0.75628015 33:-1.155953 34:-0.16926469 35:-0.77957032 36:0.7477583 37:1.2287704 38:-0.0013682228 39:0.85444492 40:0.83278694 41:-0.096333889 42:1.4329718 43:0.61322687 44:0.4553182 45:1.1315104 46:-0.74949497 47:-1.0060766 48:-1.0229678 49:0.092642881 50:-0.32042463 51:2.1977652 52:-0.065809285 53:0.086375925 54:0.42136695 55:-0.65690904 56:-0.60843833 57:-0.56941899 58:1.3147844 59:-0.2431846 60:-0.51343509 61:0.15557758 62:0.094355708 63:-1.1448065 64:-0.13930501 65:-0.65206909 66:-0.61883325 67:-0.81223795 68:0.63966466 
-0 0.004878979184601609 0 0 0 0 0.007949450143223713 0 0 1:-1.3409229 2:1.2615858 3:0.64939777 4:-1.3252149 5:-0.17291622 6:-1.4555774 7:-0.49690392 8:-0.9306947 9:1.2188171 10:-1.0134989 11:-1.0157524 12:-0.46186844 13:-0.31041589 14:-0.1305598 15:1.4222482 16:-0.33553968 17:-2.4218351 18:0.95651294 19:2.1048582 20:-1.5318962 21:-1.6905266 22:-1.0416074 23:-0.80739109 24:-0.62631794 25:-0.64037794 26:0.28159504 27:1.3595225 28:-0.27752909 29:-0.87510208 30:1.1394205 31:-0.89249074 32:-0.82965978 33:-1.2861625 34:-0.93017734 35:0.19717358 36:-0.046898317 37:-0.82849894 38:0.69703786 39:-0.46177062 40:-0.21117785 41:-0.50822943 42:-1.1534086 43:0.11025414 44:1.0713084 45:0.048430372 46:-0.22148111 47:0.61608815 48:-0.44873431 49:0.64021015 50:-0.31826633 51:1.251648 52:0.14736374 53:-0.060735396 54:0.67573982 55:-0.1031724 56:-1.1560999 57:-0.82198544 58:-0.56695096 59:-0.81572765 60:1.0810855 61:0.57886531 62:-0.6756422 63:-0.92791227 64:0.70057508 65:-0.87327427 66:-0.75599286 67:-1.1581207 68:0.01609848 
-0 0 0 0.002394803211549795 0.01548480291954593 0.007342864799400187 0 0 0 1:-1.4416795 2:-0.37584735 3:0.84312039 4:-1.4860828 5:-0.80640671 6:-0.16019159 7:3.1432003 8:-0.5602091 9:-0.58285851 10:1.105677 11:-1.3465185 12:-1.0354052 13:-1.1775535 14:-0.31927618 15:2.7776974 16:1.350068 17:-1.3812466 18:0.87006312 19:2.2714011 20:-0.53431044 21:-1.0861316 22:-1.106667 23:-0.89369375 24:-0.63305769 25:-0.7670361 26:-0.49968389 27:0.33813092 28:-0.54598471 29:-0.94596281 30:0.57772607 31:-1.1198775 32:2.2408118 33:-1.3774375 34:1.1040499 35:0.43417923 36:0.95766071 37:-0.85035097 38:-1.1077792 39:1.3886275 40:2.1754857 41:3.1366777 42:0.029096611 43:0.67484239 44:1.4985391 45:2.0442017 46:-1.2006023 47:-0.75687099 48:-1.0879744 49:3.3138525 50:-0.93374254 51:1.148241 52:1.9219693 53:0.98497679 54:0.80426694 55:-1.5555489 56:-1.2581294 57:-0.88965841 58:-0.57256112 59:-0.9036719 60:-0.5181957 61:1.735822 62:-0.2247267 63:-0.72344073 64:1.9442127 65:-1.0952279 66:3.1062044 67:-1.2756623 68:1.5236561 
-0 0.0459809457785284 0.0005407825579826281 0 0 0 0 0.003771175921039371 0.003878820037232815 1:-0.53783566 2:-0.34532049 3:0.84684087 4:-1.1182508 5:-0.86143842 6:0.11411369 7:4.2858277 8:0.42054791 9:-0.47325457 10:1.1238515 11:-1.0598611 12:-1.0458393 13:-0.70917207 14:-0.31264348 15:2.4445633 16:1.2765799 17:-1.5914331 18:0.79375621 19:2.3006433 20:-0.41740382 21:-1.223605 22:-1.1070087 23:-0.89241159 24:2.6460102 25:-0.76475608 26:-0.49933148 27:0.34520582 28:-0.54747388 29:-0.94897779 30:0.55332904 31:-1.1175385 32:-0.83882357 33:-1.3786131 34:1.6215237 35:2.113521 36:1.0102533 37:-0.86135152 38:-0.52334361 39:0.44195754 40:3.0813497 41:4.3189247 42:1.6142892 43:0.56909542 44:1.0257032 45:1.9527213 46:-1.0523982 47:-0.57979707 48:-1.2610721 49:4.4289056 50:-0.56303181 51:-0.063748505 52:2.3837009 53:1.5032734 54:0.89606092 55:-1.0820828 56:-1.25692 57:-0.88916754 58:2.6202594 59:-0.90200558 60:-0.51803266 61:1.7465305 62:-0.22883753 63:-0.72970548 64:1.900749 65:-1.0906399 66:-0.76272837 67:-1.2747439 68:2.1147248 
-0.2454692262622971 0.4857797978395697 0.1886186094834212 0.4232175031345801 0.3781959521372665 0.2992243387587428 0.1305771074281774 0.08261355246997043 0.1123619162331829 1:0.65970878 2:-2.0584948 3:-2.3745887 4:1.8268962 5:1.8945683 6:-0.43094605 7:-0.54440223 8:-1.1486633 9:-1.9132216 10:-0.71513213 11:1.8811851 12:-0.96460653 13:-0.25531177 14:-0.28340281 15:-0.050946633 16:1.0117175 17:-0.4006538 18:-1.3136821 19:0.83556234 20:0.33697281 21:-0.92093832 22:1.5044868 23:2.2836031 24:-0.26908824 25:2.6518139 26:-0.18281815 27:1.7457282 28:2.239089 29:0.50918202 30:1.1501894 31:1.2997149 32:-0.58909794 33:1.4406273 34:-1.2315827 35:-0.53269253 36:-1.5415674 37:0.85186062 38:-0.97525832 39:-1.1705066 40:-0.69276756 41:-0.63660409 42:-0.58752729 43:-1.5711902 44:-0.62509201 45:-0.93522708 46:-0.79107614 47:-0.56170355 48:-0.70885856 49:0.051340889 50:-0.65090202 51:0.14727292 52:-0.46978606 53:-0.51692223 54:-0.0036425433 55:-0.45663512 56:1.3072489 57:1.8526671 58:-0.40633655 59:2.5250597 60:-0.3845052 61:0.92436427 62:1.4843116 63:0.56509008 64:1.0033613 65:1.3628031 66:-0.61517609 67:1.5183182 68:-1.1320693 
-0.04683697025529425 0.03831818339974145 0.1193398342895326 0.1128137196893719 0.04466298362485637 0.06278698269373728 0.1173232455346719 0.09981484179064409 0.07994212016679367 1:0.73071072 2:-1.2435789 3:-1.5898957 4:1.3112624 5:1.3566156 6:0.17140056 7:-0.49649903 8:-0.42010096 9:-1.1145456 10:-0.48318769 11:1.2721559 12:-0.79367153 13:-0.2265645 14:-0.29570983 15:0.35179041 16:0.72741195 17:-0.75646272 18:-0.62867611 19:1.1529511 20:-0.077290538 21:-1.1381941 22:0.29690787 23:1.2265864 24:0.30684108 25:1.3802603 26:-0.31887157 27:1.2946713 28:1.8640086 29:-0.063953681 30:1.4558234 31:0.25859805 32:-0.65376574 33:0.94863571 34:-0.73272542 35:-0.86043729 36:-1.8132334 37:0.45786274 38:-1.0447715 39:-1.3074886 40:-1.0003485 41:-0.60150227 42:-0.81649349 43:-1.8273349 44:-0.23353917 45:-1.0978791 46:-0.83351863 47:-0.38362887 48:-0.84681279 49:-0.25482827 50:-0.75651787 51:-0.015996866 52:-0.77984012 53:-0.67861795 54:-0.27431069 55:-0.49142239 56:0.6317295 57:0.46858143 58:-0.29026915 59:1.0728566 60:-0.41597975 61:0.55727621 62:0.92154655 63:-0.058670995 64:0.53331184 65:0.35612975 66:-0.64257251 67:2.151464 68:-1.0050031 
-0 -0 0 0.00182469424069396 0.00405741284030219 0 0 0 0 1:0.026800313 2:0.322949 3:0.55842807 4:-0.085151822 5:0.96827969 6:1.1109692 7:-0.22385499 8:-0.10466623 9:0.42186468 10:-0.59305677 11:0.6581075 12:-1.3640994 13:-1.7642913 14:1.1509891 15:1.9200476 16:-1.0589785 17:-1.2495985 18:1.0345966 19:0.61777277 20:-0.34623861 21:-0.059740184 22:-1.0074707 23:-0.73745937 24:-0.62429988 25:-0.60475361 26:-0.4963933 27:-0.83625085 28:-0.65037825 29:1.5073966 30:1.3210146 31:-1.034978 32:0.89376375 33:-1.2254959 34:0.06782416 35:-0.59080543 36:0.73822192 37:-0.88452793 38:0.30282711 39:-0.38436805 40:-0.67612736 41:-0.17796976 42:0.085441261 43:0.97057314 44:-0.98532822 45:-0.58422081 46:-0.77077729 47:0.07576409 48:1.1583309 49:0.96457003 50:1.9064562 51:1.2955657 52:1.4931334 53:-1.4208093 54:0.72007981 55:-0.14594308 56:-1.0430048 57:-0.63142114 58:-0.56292366 59:-0.61747514 60:-0.51814882 61:-1.012032 62:-0.80007389 63:1.7764678 64:1.5305526 65:-1.0478556 66:2.31084 67:-0.95939319 68:0.87041615 
-0 -0 0.002973073457530376 0 0 0 0 0 0 1:0.26828575 2:0.32617341 3:0.60803646 4:0.44359942 5:0.86018181 6:1.1457127 7:0.076524973 8:1.3316337 9:0.45487647 10:-1.211002 11:0.4830936 12:-1.6990588 13:-1.5696844 14:0.93160788 15:1.6904209 16:-1.1478515 17:-1.3655614 18:1.1956661 19:1.0383725 20:-0.2521599 21:-0.24539852 22:-1.0691901 23:-0.82437495 24:1.4425272 25:-0.71025784 26:-0.50401863 27:-0.93420736 28:-0.66866527 29:1.5263066 30:1.2578692 31:-1.0525871 32:-0.83096256 33:-1.3066788 34:0.58388112 35:2.1546379 36:0.74217465 37:-1.0447587 38:-1.1012474 39:-0.060340582 40:-0.60986888 41:0.26146263 42:1.7269785 43:0.85693322 44:-0.94630873 45:-0.35430462 46:-0.85755535 47:0.21636787 48:0.44067135 49:0.78796857 50:1.3534877 51:1.1372754 52:0.31134566 53:-0.75274851 54:0.4247708 55:-0.44248716 56:-1.2200335 57:-0.81170957 58:2.2858754 59:-0.84416027 60:-0.52662392 61:-1.0509321 62:-0.78850135 63:1.7752178 64:1.66894 65:-1.1076482 66:-0.75314564 67:-1.1714319 68:1.6989085 
-0 -0 0 0 0 0.009820138594184034 0 0 0 1:-0.15382352 2:1.264958 3:0.62500081 4:-0.75833377 5:-0.52643948 6:1.1665179 7:-0.42936355 8:0.30570516 9:1.2654033 10:0.56281408 11:-0.2256401 12:-0.52678415 13:-1.2778284 14:1.0237341 15:1.8360934 16:-1.4967494 17:-1.3517294 18:1.8786564 19:0.69922562 20:-0.94999893 21:-0.42219896 22:-0.89864507 23:-0.74998078 24:-0.6082118 25:-0.64182458 26:-0.4960073 27:-0.83917543 28:-0.43248107 29:1.749919 30:1.4416032 31:-0.82398591 32:-0.47094383 33:-1.1822114 34:-1.0701224 35:-0.741568 36:-0.046518582 37:0.18325248 38:0.2264653 39:-0.42709693 40:-0.41517454 41:-0.29791363 42:-0.33757058 43:0.0058471134 44:0.71782127 45:-0.52153877 46:-0.43632458 47:-0.14330317 48:0.34050113 49:0.51018705 50:0.59620762 51:0.55872553 52:0.18468165 53:-0.95978275 54:-0.3661921 55:-1.0257727 56:-0.35667079 57:-0.49512688 58:-0.51962209 59:-0.54280419 60:-0.50845125 61:-0.61931798 62:0.19768799 63:0.58519861 64:0.42604982 65:-0.61366659 66:0.34726647 67:-0.59015862 68:-0.56384221 
-0 -0.04916616544591974 0 0 0.007213338099869464 0 0 0 0 1:-0.43565126 2:-0.37136824 3:0.91764803 4:-1.1583967 5:-0.87776958 6:-0.13330401 7:4.7698146 8:0.61348371 9:-0.48285684 10:0.92374846 11:-1.1273399 12:-0.66339832 13:-1.455607 14:0.53010071 15:2.84971 16:0.39143452 17:-0.51276123 18:0.96355567 19:1.0744508 20:0.29629998 21:-0.41450232 22:-1.1073449 23:-0.89272353 24:2.6466995 25:-0.76516313 26:-0.50673541 27:-0.95073991 28:-0.75096217 29:0.84771148 30:0.59510533 31:-1.1174724 32:-0.83837385 33:-1.3761698 34:1.6701155 35:2.3033796 36:0.96537535 37:-1.0440968 38:-0.32357567 39:0.14200559 40:2.4123527 41:4.8196934 42:1.9261303 43:0.69552755 44:1.5198624 45:1.6192137 46:-0.52365182 47:1.254176 48:-0.29278359 49:4.2327983 50:-0.36209662 51:-0.71981953 52:1.7878478 53:-0.74858615 54:-1.1403027 55:-0.96453808 56:-1.2576364 57:-0.88804941 58:2.6205473 59:-0.90187245 60:-0.52411187 61:-0.89286007 62:-0.58676056 63:2.2059549 64:1.9755113 65:-1.0880205 66:-0.76226115 67:-1.2726124 68:2.0605518 
-0.3489265610364553 -0.5257917407565215 0.4823320111812905 0.3607172667960024 0.6175893370579517 0.4090217393315141 0.1587508297823033 0.1163114192552253 0.1555558973406726 1:0.6934864 2:-2.0578665 3:-2.2683912 4:1.8093343 5:1.9184087 6:-0.46453111 7:-0.54040745 8:-1.1100761 9:-1.9090412 10:-0.61566165 11:1.9407084 12:-0.98684244 13:-0.34805635 14:-0.26791999 15:-0.14419088 16:0.76194118 17:-0.28606597 18:-1.0963075 19:0.69334997 20:0.41629397 21:-0.8324392 22:1.3768346 23:2.2305698 24:-0.26256687 25:2.6394213 26:-0.21228033 27:1.3929114 28:2.4631787 29:0.32371272 30:1.6226692 31:0.98996868 32:-0.59971404 33:0.86273693 34:-1.2179905 35:-0.51845135 36:-1.5399905 37:0.74627927 38:-0.9796817 39:-1.2426582 40:-0.96317341 41:-0.62031162 42:-0.49225825 43:-1.576023 44:-0.79622255 45:-1.1085403 46:-0.85253738 47:-0.58148097 48:-0.38426441 49:-0.054030215 50:-0.32656792 51:-0.37127504 52:-0.43302011 53:-1.0154573 54:-0.44925448 55:-0.6705698 56:1.1439505 57:2.0973626 58:-0.39953359 59:2.2741114 60:-0.40296875 61:1.7201348 62:1.5384975 63:-0.044708564 64:0.82215106 65:1.2001024 66:-0.61747583 67:0.80741679 68:-1.1339852 
-0.06088355450333552 -0 0.3540340319232508 0.05147301381889972 0.05463786740269655 0.05555481643045083 0.118643879420055 0.1478828861894148 0.1090861662880511 1:0.83297622 2:-1.2446447 3:-1.2301793 4:1.3067485 5:1.6442935 6:0.1505105 7:-0.48507825 8:-0.30985193 9:-1.1120708 10:-0.33954304 11:1.5869673 12:-1.0242158 13:-0.75009994 14:0.21578831 15:0.52350522 16:0.14635397 17:-0.58202866 18:-0.2951791 19:0.67187681 20:-0.0064773016 21:-0.74431271 22:0.32404429 23:1.0131937 24:1.1414464 25:0.79955438 26:-0.350016 27:0.28246412 28:0.95868918 29:0.91203922 30:1.2743684 31:-0.081000388 32:-0.68636963 33:-0.2106295 34:0.090295318 35:-0.71818644 36:-1.8149635 37:0.35494272 38:-1.1426485 39:-1.352395 40:-1.2597414 41:-0.57792689 42:-0.7437457 43:-1.8317048 44:-0.38620126 45:-1.2755599 46:-0.796126 47:-0.3927452 48:-0.39749684 49:-0.030623401 50:-0.37863258 51:-0.195889 52:-0.39584153 53:-0.83030689 54:-0.49595402 55:-0.78212003 56:0.60369042 57:0.87159392 58:-0.12246577 59:0.44984894 60:-0.46201447 61:0.36196313 62:0.99517104 63:0.6248485 64:0.50090777 65:-0.09522693 66:-0.67702221 67:0.11947591 68:-0.82856338 
-0 -0 -0 0 0.005621719812008493 0.009711463713384298 0 0 0 1:-1.2545759 2:-0.31547157 3:0.86510491 4:-1.3400705 5:-0.57622242 6:-0.118495 7:2.9500543 8:-0.35119532 9:-0.51705781 10:0.18868928 11:-0.81138076 12:-0.86782072 13:-2.8277348 14:1.2936573 15:1.844728 16:-0.37521551 17:0.53952182 18:0.22225711 19:0.60257667 20:1.646953 21:-0.95252923 22:-1.1017432 23:-0.89151177 24:-0.63305757 25:-0.77650853 26:-0.50856293 27:-0.98958905 28:-0.85212649 29:-0.96634338 30:0.7344708 31:-0.93130411 32:2.2400353 33:-1.3661381 34:1.0871381 35:0.78181771 36:1.0616828 37:-0.91169324 38:-1.0672644 39:1.3348755 40:2.1635185 41:2.9368345 42:0.36692453 43:0.82188829 44:0.5847258 45:1.3305377 46:-0.88529065 47:2.086855 48:2.7299836 49:2.0836644 50:0.80817999 51:0.38369574 52:0.74572132 53:-0.54562349 54:-0.54927324 55:0.59064293 56:-1.2486452 57:-0.88570717 58:-0.57263737 59:-0.92065068 60:-0.52561563 61:-0.9762364 62:-0.76521937 63:-0.75758846 64:2.2084309 65:-0.69637902 66:3.1046115 67:-1.2535141 68:1.5408906 
-0 -0 -0 0 0 0.01377945845094831 0 0 0 1:1.2153568 2:-0.61761481 3:-1.1325657 4:1.2377067 5:1.00742 6:0.24305674 7:-0.40662624 8:0.49864097 9:-0.56699806 10:-0.34298101 11:1.3526775 12:-1.4418798 13:-1.1069878 14:1.2714445 15:0.056413089 16:-0.75248787 17:0.34258796 18:-0.30013308 19:0.15295545 20:0.88557292 21:-1.1243328 22:0.2306531 23:1.3869415 24:-0.38867661 25:1.3533959 26:-0.32584465 27:0.49523155 28:0.88580087 29:-0.19515401 30:1.028941 31:0.99884613 32:-0.66234459 33:0.085834997 34:-1.3101802 35:-0.7190044 36:-1.3727833 37:1.0281655 38:-0.8831543 39:-1.2202889 40:-0.86177937 41:-0.45197275 42:-0.21026196 43:-1.4375939 44:0.1595851 45:-1.2024243 46:-0.56009613 47:-0.12074262 48:0.41243555 49:-0.23956372 50:-0.018063923 51:-0.27272224 52:-0.44190937 53:-0.57203526 54:-0.71227611 55:-0.72367775 56:0.33113568 57:1.3210858 58:-0.44450914 59:1.3902461 60:-0.45826849 61:1.3826465 62:0.76172932 63:0.17391049 64:0.013273466 65:2.194941 66:-0.60178793 67:0.28129296 68:-1.1312044 
-0.26425540110091 -0.2244023727523642 -0.4334269412787268 0.2526777546858792 0.2886722619711 0.4358169453203756 0.1373617033482658 0.1087477387706898 0.1650959158914046 1:0.65970878 2:-2.0590828 3:-2.3517513 4:1.8498696 5:1.961116 6:-0.48324549 7:-0.53734365 8:-1.0650578 9:-1.9200028 10:-0.57398312 11:2.0548254 12:-1.1289442 13:-0.39512534 14:0.021386865 15:-0.22421378 16:0.69626902 17:-0.05882467 18:-1.2978886 19:0.52008398 20:0.65735478 21:-0.88995487 22:1.5640589 23:2.0612924 24:-0.29206756 25:2.0368919 26:-0.22815862 27:1.4369061 28:2.4653199 29:0.38856394 30:1.1147632 31:1.0213446 32:-0.55384423 33:0.9451115 34:-1.2272225 35:-0.46177746 36:-1.5431537 37:1.0492948 38:-0.96379146 39:-1.3135469 40:-0.9445359 41:-0.617914 42:-0.38111102 43:-1.592242 44:-0.67209407 45:-1.2409604 46:-0.71432254 47:-0.20247104 48:0.3380155 49:-0.47442786 50:0.13889059 51:-0.47810355 52:-0.54316054 53:-0.49616336 54:-0.57100895 55:-0.64253955 56:1.216733 57:1.2886695 58:-0.43815412 59:1.3924268 60:-0.38844591 61:1.8908931 62:1.9562401 63:0.50395104 64:0.84289029 65:0.86018071 66:-0.58560994 67:1.2085643 68:-1.1311026 
-0.08914138855675408 -0.0881881649258717 -0.405912175283345 0.05805690953225068 0.09442346125857612 0.1301325103105375 0.1431735406849151 0.1468317422705749 0.1768344987230259 1:0.93524173 2:-1.2442071 3:-1.3444408 4:1.3854638 5:1.5609476 6:0.05650282 7:-0.47774702 8:-0.18122806 9:-1.1242833 10:-0.41469517 11:1.5629113 12:-1.0427333 13:-0.74930434 14:0.49069432 15:0.071752044 16:0.019591508 17:-0.10184493 18:-0.84266554 19:0.48823478 20:0.68564336 21:-1.1542394 22:0.37799375 23:1.2362264 24:0.61768484 25:1.1182322 26:-0.33729847 27:0.37992609 28:1.0390369 29:-0.19515985 30:1.2577523 31:0.60909773 32:-0.68243143 33:-0.0074687526 34:-0.45466788 35:-0.47876242 36:-1.8142782 37:0.27606592 38:-1.1199348 39:-1.3586817 40:-1.2016191 41:-0.56589997 42:-0.65887329 43:-1.8292231 44:-0.23693471 45:-1.2262899 46:-0.79535465 47:-0.4279282 48:-0.29229426 49:-0.19827739 50:-0.53179162 51:-0.48379832 52:-0.72950936 53:-0.81404535 54:-0.93842571 55:-0.77003892 56:0.087936322 57:1.0171363 58:-0.10455172 59:0.85863209 60:-0.4620871 61:0.86183263 62:0.41201494 63:-0.14311975 64:0.50088396 65:0.23069128 66:-0.68335729 67:0.29265207 68:-0.79127951 
-0 -0 -0 -0 0.03018147992190864 0 0 0 0 1:-0.57057578 2:-0.37269048 3:0.67604315 4:-0.3495122 5:-1.1696988 6:-1.0774691 7:-0.054276235 8:-1.1849745 9:-0.73020192 10:0.15547453 11:-1.5212921 12:0.28142458 13:1.1784595 14:-0.4351205 15:-0.42175394 16:0.4701327 17:-0.26293575 18:1.8502898 19:1.2454286 20:-1.5120284 21:-0.5256592 22:-0.84191193 23:-0.61010945 24:-0.6165911 25:-0.13160145 26:0.93118589 27:0.48467764 28:-0.26752043 29:-0.95958784 30:-0.84000547 31:0.39254874 32:0.49270848 33:-0.53276687 34:0.37181563 35:0.66639468 36:0.96310315 37:-0.5799488 38:2.2204037 39:1.7856188 40:-0.037922952 41:-0.17166843 42:-0.98070845 43:0.72098694 44:0.095212983 45:2.1558476 46:0.43428276 47:0.29289416 48:-0.70697974 49:-1.0819769 50:-0.20632996 51:-1.0513834 52:2.7237833 53:-0.82734779 54:2.4559381 55:-0.30154097 56:-1.0263421 57:-0.60208397 58:-0.55652305 59:0.081530504 60:0.69468497 61:1.1977284 62:-0.88603915 63:-1.0413416 64:-1.003942 65:1.3870717 66:0.87079583 67:-0.37967233 68:-1.0601861 
-0 -0 -0 -0 0 0.00100843960172938 0 0 0 1:-1.3821465 2:-0.369566 3:0.88176592 4:-0.52197013 5:-0.55908895 6:0.6860624 7:0.36881123 8:-0.5602091 9:-0.62848718 10:0.25557752 11:-1.4342593 12:0.23908097 13:1.1837922 14:-0.29766042 15:-0.30855206 16:0.50648525 17:-0.34218873 18:1.9259313 19:1.2305356 20:-1.2203757 21:-0.25097111 22:-1.0354807 23:-0.83370246 24:-0.63163634 25:-0.76814584 26:-0.49892355 27:0.31464027 28:-0.63051745 29:-1.118961 30:-0.98626196 31:0.24573449 32:3.4648678 33:-0.67959015 34:1.9743168 35:0.54479147 36:0.96848619 37:-1.1024552 38:0.51583326 39:1.828157 40:-0.26256956 41:0.26608921 42:0.029096611 43:0.56061603 44:0.12308259 45:2.0443301 46:0.86042245 47:1.4354218 48:-1.1632737 49:-0.74283764 50:-0.19658998 51:-1.0520961 52:2.6239659 53:-0.40202511 54:2.7593414 55:-0.75401955 56:-1.1436377 57:-0.91992386 58:-0.57118123 59:-0.92993118 60:-0.52359793 61:1.5433071 62:-0.45190648 63:-1.0605729 64:-0.93241659 65:1.7022535 66:1.3466963 67:-0.10963684 68:0.36058325 
-0 -0 -0 -0.001004055946815236 0.007102095294184808 0.0008902398171450788 0.01826139885075372 0.008144717912976066 0.006912344554561215 1:-0.48674346 2:-0.36730614 3:0.91819531 4:-0.54910137 5:-0.27009423 6:0.54123366 7:2.0189902 8:0.42054791 9:-0.54386189 10:0.043672212 11:-1.2768267 12:0.32107891 13:1.8637656 14:-0.37987757 15:-0.14252232 16:0.2984786 17:-0.37739837 18:1.3533762 19:1.371523 20:-0.8472785 21:0.3617958 22:-1.0390207 23:-0.87054884 24:2.6311076 25:-0.78786646 26:-0.50155069 27:0.29300789 28:-0.64616789 29:-1.1276348 30:-1.0180896 31:0.23547783 32:0.47425157 33:-0.70756149 34:2.5552027 35:2.2084503 36:0.9723791 37:-1.1249668 38:-1.441154 39:1.3197789 40:2.9358747 41:1.9734866 42:1.6142892 43:0.48949626 44:-0.043362071 45:1.8059599 46:0.69067937 47:1.8520113 48:-0.9113369 49:0.03183807 50:-0.36988032 51:-0.67632195 52:3.0011446 53:-0.44129128 54:2.9571678 55:-0.97036888 56:-1.1348007 57:-0.86874951 58:2.6083156 59:-0.95897958 60:-0.52099794 61:1.6120268 62:-0.41614228 63:-1.0343273 64:-0.86205056 65:1.7394835 66:0.88425966 67:-0.05614244 68:1.022211 
-0 -0 -0 -0 0 0 0.01096311875461829 0 0 1:0.90892519 2:-0.6169799 3:-1.1895561 4:1.1155151 5:0.9199095 6:0.6874038 7:-0.48513008 8:0.14033162 9:-0.40245824 10:0.070665706 11:1.015436 12:-0.60564354 13:0.20430752 14:-0.34509978 15:-0.21020505 16:0.50155667 17:-0.40731311 18:-0.23281608 19:0.57498121 20:-0.77572063 21:-0.14339765 22:0.53949876 23:1.8101955 24:-0.34610218 25:1.0870495 26:-0.31176474 27:1.7153252 28:1.2447295 29:-0.15140309 30:0.9490919 31:1.4009612 32:0.47857683 33:0.36801928 34:-0.43867098 35:-0.74638845 36:-1.3728065 37:0.85933656 38:-0.82756871 39:-1.2007909 40:-0.37280703 41:-0.57485037 42:-0.44669226 43:-1.3066791 44:-0.90475456 45:-1.0261091 46:-0.88489271 47:-0.54670971 48:-0.74010096 49:-0.73521475 50:-0.74707881 51:-1.1094183 52:-0.32564112 53:-0.9782535 54:0.17336722 55:-0.62502086 56:0.62866486 57:1.7902521 58:-0.434862 59:0.5986368 60:-0.42676943 61:0.14146279 62:0.39885672 63:-0.11019089 64:1.5999557 65:0.43071019 66:-0.17398018 67:-0.1814924 68:-0.8728201 
-0.2888858377317146 -0.454157578900895 -0.3573243812964834 -0.25472651221085 0.3844354554882435 0.3308628153701672 0.1644155282079769 0.07000134964270539 0.1062236428034246 1:0.58931508 2:-2.0588829 3:-2.3839132 4:1.8075711 5:1.910771 6:-0.39484964 7:-0.55854139 8:-1.1486633 9:-1.8836413 10:-0.54098315 11:1.9606707 12:-0.87493125 13:-0.11626323 14:-0.3497545 15:-0.38080939 16:0.90959857 17:-0.15719575 18:-1.2244288 19:0.6481061 20:0.17270712 21:-0.67189399 22:1.1776059 23:2.3961685 24:-0.24442788 25:2.3724499 26:-0.2382324 27:1.5136217 28:2.2899472 29:0.27101275 30:0.89034187 31:1.5733853 32:-0.26985385 33:1.1817827 34:-1.0168349 35:-0.68551261 36:-1.5427114 37:1.0159542 38:-0.9207977 39:-1.2635938 40:-0.53272571 41:-0.67576885 42:-0.58752729 43:-1.4919666 44:-0.90744982 45:-1.1088544 46:-0.75543653 47:-0.50289708 48:-0.59603997 49:-0.49297764 50:-0.75962516 51:-0.6976984 52:-0.59150018 53:-0.96421429 54:-0.028133741 55:-0.41529006 56:1.1268229 57:1.3543523 58:-0.37680812 59:1.7037183 60:-0.41625416 61:0.63896996 62:1.4999152 63:0.21829334 64:0.92528951 65:1.2767667 66:-0.21463584 67:0.94241654 68:-0.86385271 
-0.04681665818880525 -0.08426844713460677 -0.0566905935591129 -0.05500409606046479 0.4063472483180314 0.2034037310298563 0.2050910471544497 0.190547004558895 0.1232996541187059 1:0.7513098 2:-1.2418666 3:-1.725494 4:1.4570416 5:1.3208098 6:0.19093046 7:-0.51615182 8:-0.42010096 9:-1.0620543 10:-0.31291481 11:1.3490368 12:-0.76465025 13:0.047715374 14:-0.29176118 15:-0.27144377 16:0.69797634 17:-0.27212288 18:-0.67042171 19:0.52955841 20:-0.36540534 21:-0.42381549 22:0.82146781 23:1.668302 24:-0.33686539 25:1.9996133 26:-0.25427584 27:1.3823397 28:1.8309546 29:0.088781489 30:0.82816237 31:1.4606597 32:0.02026025 33:0.84268978 34:-0.78156475 35:-0.720587 36:-1.8134598 37:0.7703335 38:-1.03481 39:-1.290663 40:-0.83030456 41:-0.63265091 42:-0.81649349 43:-1.7931593 44:-0.18424149 45:-1.1732201 46:-0.70410912 47:-0.69128553 48:-0.78091003 49:-0.56197101 50:-0.71861703 51:-0.65104681 52:-0.70840574 53:-0.9289693 54:-0.25497866 55:-0.37500134 56:0.76028247 57:1.0823275 58:-0.43034013 59:1.6705125 60:-0.39006994 61:0.2361184 62:1.0110155 63:0.57058155 64:0.80618627 65:0.43177216 66:-0.41623586 67:0.59123381 68:-0.98197276 
-0 -0 -0 -0 -0 0 0.004591925590592121 0 0 1:0.33640868 2:0.32621278 3:0.55566577 4:0.16537357 5:-0.03273479 6:1.4850187 7:-0.0072751381 8:1.3316337 9:0.48864688 10:0.70669584 11:-0.0059497623 12:0.1020621 13:0.47636487 14:-0.1703611 15:-0.48539363 16:-0.50101405 17:0.33936002 18:1.2104918 19:-0.61579803 20:-1.3267369 21:1.1736813 22:-0.98790243 23:-0.80422553 24:1.437911 25:-0.69971488 26:-0.50273445 27:-0.97384588 28:-0.77044377 29:1.3162844 30:-0.95408322 31:0.81486134 32:0.90324163 33:-0.52789252 34:1.7714235 35:2.2429913 36:0.74232637 37:-0.95800945 38:-0.59926317 39:0.55256713 40:0.0010121612 41:0.13852744 42:1.7269785 43:0.90112851 44:0.38024611 45:0.11782801 46:-0.41722509 47:-0.33462822 48:-0.41510219 49:-0.33670016 50:0.27706573 51:-1.2323386 52:0.99364382 53:-0.048195532 54:1.0007399 55:0.74661191 56:-1.2391709 57:-0.84847822 58:2.2758779 59:-0.85994176 60:-0.52359726 61:-1.1128382 62:-0.86556655 63:1.6867316 64:-0.89146441 65:1.4466227 66:0.76463984 67:-0.34992592 68:0.72914603 
-0 -0 -0 -0 -0.003298465134516166 0 0 0 0 1:-0.97108559 2:0.32315145 3:0.5954921 4:-0.50182416 5:0.0065537088 6:1.0874161 7:-0.17316455 8:-0.10466623 9:0.43460337 10:0.43331743 11:-0.06015136 12:0.079446111 13:0.55691123 14:-0.097256732 15:-0.4323907 16:-0.54218789 17:0.058613581 18:1.0072772 19:-0.49102107 20:-1.2530301 21:0.83509372 22:-0.99703158 23:-0.81816398 24:-0.62308323 25:-0.68919135 26:-0.50701542 27:-0.95101031 28:-0.76877621 29:1.298856 30:-0.94739864 31:0.73786298 32:2.8131606 33:-0.52803513 34:1.4226669 35:0.52500584 36:0.73858617 37:-0.92630682 38:0.49902903 39:0.33071463 40:-0.95440727 41:-0.10411642 42:0.085441261 43:1.0029493 44:-0.094363614 45:0.13694986 46:-0.34767967 47:-0.42098659 48:-0.57917971 49:-0.7695544 50:0.046775811 51:-0.25451902 52:1.3617917 53:0.39095425 54:1.2210182 55:1.5603288 56:-1.2465947 57:-0.87475345 58:-0.56345849 59:-0.831625 60:-0.52814936 61:-1.0353909 62:-0.88871768 63:1.6326075 64:-0.94526659 65:1.5824721 66:1.0704086 67:-0.3083 68:0.14306758 
-0 -0 -0 -0 -0.03400159221801519 0 0.003781215867213344 0 0 1:-1.868582 2:0.31980831 3:0.60226181 4:-0.89000481 5:0.16179262 6:-0.98763955 7:-0.30252935 8:-1.0196231 9:0.38228534 10:0.26102341 11:-0.22302117 12:0.060001139 13:0.57857957 14:-0.012791789 15:-0.32804673 16:-0.41840934 17:0.22016868 18:1.0831473 19:-0.45377381 20:-1.2660476 21:1.0757385 22:-1.0020187 23:-0.8324821 24:-0.63002097 25:-0.72768758 26:1.9056459 27:-1.0021054 28:-0.76573187 29:1.42599 30:-0.96355401 31:0.72687077 32:0.89689951 33:-0.52802994 34:1.3652538 35:-0.6540593 36:0.7345088 37:-0.85366789 38:1.285018 39:0.063923039 40:1.0509567 41:-0.29341775 42:-0.96025667 43:1.1049273 44:-0.49548711 45:-0.010420359 46:-0.28995434 47:-0.30290472 48:-0.91927082 49:-1.1683728 50:0.27524961 51:-0.80667509 52:1.1576061 53:0.5811826 54:1.1941365 55:0.81949716 56:-1.2410367 57:-0.89723532 58:-0.57267455 59:-0.91582346 60:2.4028351 61:-1.1384631 62:-0.89643002 63:1.8194805 64:-0.92893175 65:1.5195696 66:0.7702249 67:-0.25697044 68:0.078690604 
-0 -0.006331132770296083 -0 -0 -0 0 0 0 0 1:-0.51816223 2:-0.37917499 3:0.66441217 4:-0.37336455 5:-1.0599091 6:-0.85616038 7:0.049958754 8:-1.1499589 9:-0.68212344 10:-0.19037786 11:-1.1714442 12:0.64511619 13:0.54145759 14:0.37362153 15:0.096094664 16:-0.34927191 17:0.48756438 18:1.3661914 19:-0.071497393 20:-1.1227433 21:-0.40145176 22:-0.92847176 23:-0.75859046 24:-0.61504613 25:-0.68260822 26:2.1969031 27:-0.91093627 28:-0.76468591 29:0.74206149 30:-0.87986265 31:0.32743777 32:0.4750761 33:-0.60439322 34:1.1968756 35:0.66066619 36:0.951931 37:-0.90401708 38:2.14817 39:1.783376 40:0.58937462 41:-0.06381919 42:-0.92411295 43:0.78039842 44:-0.90881409 45:1.7681711 46:1.0516718 47:-0.10726138 48:0.2578248 49:0.06269874 50:1.9431594 51:-0.31896687 52:2.909504 53:0.55473012 54:1.5225499 55:-0.62200234 56:-1.1444986 57:-0.77797667 58:-0.55496269 59:-0.77818202 60:1.7958937 61:-0.9972188 62:-0.93031483 63:1.7431702 64:-1.075224 65:1.6685059 66:0.87382482 67:-0.38652166 68:-0.52359889 
-0.0007060021896584185 -0 -0 -0.009740974387290617 -0 0 0.004459225009273203 0 0 1:-0.36752832 2:-0.37306818 3:0.84859863 4:-0.57671293 5:-0.12154793 6:0.3183465 7:2.4041948 8:0.61348371 9:-0.54650018 10:-0.035312065 11:-1.0136794 12:0.84703768 13:0.55730331 14:0.4621791 15:0.21757594 16:-0.70360392 17:0.26541187 18:1.2416386 19:-0.22674792 20:-0.74988193 21:-0.38766581 22:-1.0423364 23:-0.88004342 24:2.6352177 25:-0.79567741 26:-0.51045723 27:-1.0273848 28:-0.84757166 29:0.64369304 30:-1.0135729 31:0.26084746 32:0.46602814 33:-0.74175713 34:2.5559201 35:2.429952 36:0.96245151 37:-0.93006995 38:-1.2752698 39:1.2352267 40:2.6047944 41:2.3720479 42:1.9261303 43:0.53508581 44:-0.63570264 45:1.8699942 46:1.3987551 47:1.3009958 48:1.6559288 49:0.56548432 50:1.2631496 51:-1.0436523 52:2.6706025 53:-0.18338565 54:0.74745194 55:0.75382126 56:-1.1778991 57:-0.88529714 58:2.6123422 59:-0.95842959 60:-0.52744464 61:-1.073632 62:-0.78429125 63:1.8603797 64:-0.81321641 65:1.8215378 66:0.8751049 67:-0.11867117 68:1.0305541 
-0 -0 -0 -0.005372413599644899 -0.02172088018683784 0.1290228327923371 0.04690023367281091 0.07612384358206169 0.05175843419106026 1:1.1072116 2:-0.61647111 3:-1.0965305 4:1.0076252 5:0.47592126 6:0.51087208 7:-0.44004199 8:0.30570516 9:-0.50260044 10:0.85718164 11:0.5827083 12:-0.32990994 13:0.076499235 14:-0.057698576 15:-0.20902918 16:0.12117476 17:0.049773575 18:0.014272581 19:-0.13435656 20:-0.30069804 21:0.28213755 22:0.72064505 23:0.94967317 24:-0.27614403 25:0.9026218 26:-0.34149892 27:0.31018301 28:1.1832594 29:0.87463929 30:0.4582248 31:1.2544157 32:0.46645861 33:0.77721908 34:-0.36671941 35:-0.91018777 36:-1.3723115 37:0.67086069 38:-0.77090103 39:-0.93601791 40:-0.60601656 41:-0.50032477 42:-0.33757058 43:-1.3712423 44:-0.022553379 45:-0.80736934 46:-0.46151357 47:-0.54008463 48:-0.44986016 49:-0.63276099 50:-0.5787888 51:-0.49356716 52:-0.33964043 53:-0.38110435 54:-0.44632779 55:0.234794 56:1.0361305 57:0.65119779 58:-0.38463405 59:0.33532277 60:-0.42611029 61:0.49671352 62:1.169472 63:-0.1592705 64:0.84273548 65:0.12704053 66:-0.13962364 67:0.019744182 68:-0.83508558 
-0.3405231535387992 -0.4030397762254036 -0.6141847060725045 -0.2975993194075714 -0.4746764487996675 0.5388855747657024 0.1603102444208063 0.1325608899693256 0.1657588202145967 1:0.57966433 2:-2.0588152 3:-2.3057276 4:1.7915578 5:1.8739651 6:-0.43767758 7:-0.54559052 8:-1.1100761 9:-1.910799 10:-0.25755939 11:1.9074577 12:-0.8850081 13:-0.2805375 14:-0.28454208 15:-0.30281431 16:0.88902297 17:-0.082115259 18:-1.159084 19:0.50528142 20:0.34944282 21:-0.56459222 22:1.0796778 23:2.530196 24:-0.22638427 25:2.4400297 26:-0.22223589 27:1.3388182 28:2.1885839 29:0.54387861 30:1.4168077 31:1.2445294 32:-0.28762127 33:0.94087592 34:-1.0086458 35:-0.57470336 36:-1.5425089 37:0.75442364 38:-0.84596435 39:-1.0748471 40:-0.72439175 41:-0.64193463 42:-0.49225825 43:-1.5458202 44:-0.28259863 45:-0.93033142 46:-0.59892204 47:-0.58852458 48:-0.60011856 49:-0.46273196 50:-0.50560652 51:-0.79824393 52:-0.46947432 53:-0.4957384 54:-0.38641423 55:-0.032690196 56:1.1261264 57:1.94339 58:-0.40488067 59:2.1196456 60:-0.40847101 61:1.5748511 62:1.2204972 63:0.20882672 64:1.080957 65:0.88525377 66:-0.21095203 67:0.82174629 68:-0.88864326 
-0.09349934346092997 -0.02897282968596911 -0.06931324932831542 -0.07600473564717765 -0.2943688926833316 0.1558966470730202 0.1125719534960331 0.293453701601647 0.09459057095553174 1:0.97611549 2:-1.2434756 3:-1.5839404 4:1.3444432 5:1.1811201 6:0.15486684 7:-0.48697352 8:-0.30985193 9:-1.1246294 10:-0.144817 11:1.0486171 12:-0.56274829 13:0.044814888 14:-0.30355961 15:-0.2340246 16:0.50878187 17:0.063713489 18:-0.63330332 19:0.14488686 20:-0.045781293 21:-0.1435095 22:0.89215779 23:1.4878251 24:-0.034014976 25:1.8471385 26:-0.3208256 27:0.53735813 28:1.8834402 29:1.1449936 30:0.5853927 31:1.0431996 32:0.047702501 33:0.82706466 34:-0.5537331 35:-0.69543816 36:-1.8141095 37:0.65345912 38:-0.99359426 39:-1.1800329 40:-0.9636794 41:-0.58766502 42:-0.7437457 43:-1.8305523 44:-0.61823485 45:-0.93343182 46:-0.60737468 47:-0.50257847 48:-0.58155389 49:-0.33244221 50:-0.75700164 51:-0.68726502 52:-0.57744806 53:-0.84749597 54:-0.41010349 55:-0.43081508 56:0.82525398 57:0.86390459 58:-0.34034408 59:1.9481408 60:-0.43629454 61:0.71494544 62:1.2634352 63:0.5862275 64:0.5216106 65:0.032460247 66:-0.37552478 67:0.015668305 68:-0.90124746 
-0 -0 -0 -0 -0 -0 0.006357384806905318 0.00225654411363198 0.001464620046033218 1:-0.84703157 2:0.32146869 3:0.4821203 4:-0.7530972 5:-0.10473148 6:-1.3513717 7:-0.32434149 8:-0.96515447 9:0.35536946 10:-0.25155338 11:-0.23260442 12:0.049970224 13:0.17932723 14:0.90367972 15:-0.71663229 16:-0.88570304 17:1.2345072 18:0.37702892 19:-1.1620035 20:-0.019909149 21:-0.19208444 22:-0.8354349 23:-0.4093654 24:-0.6212988 25:-0.55487525 26:0.026194211 27:-0.8230139 28:-0.84608733 29:-1.041277 30:-0.66994406 31:1.0613011 32:0.91610739 33:-0.36787567 34:0.16011811 35:0.40157243 36:0.73646793 37:-0.86412788 38:1.6683697 39:-0.060433175 40:-0.39409886 41:-0.32524076 42:-0.8980048 43:1.0966974 44:-0.63379371 45:-0.12907116 46:-0.36671708 47:-1.0941106 48:-0.39006706 49:-0.36612821 50:0.90290264 51:1.1742465 52:0.68419773 53:0.72456298 54:-0.69873705 55:0.096707733 56:-0.84656532 57:-0.062699411 58:-0.55979728 59:-0.5157741 60:0.12102903 61:-0.50874048 62:-0.77354553 63:-1.0010064 64:-1.0838922 65:1.6061184 66:0.75391178 67:-0.56267891 68:-0.63667506 
-0 -0 -0 -0.01349272847613151 -0 -0 0.001005537546106081 0.002671005296776309 0.009708905294849902 1:-0.23128245 2:-0.37433389 3:0.81328821 4:-0.074839244 5:0.22451148 6:0.81432718 7:1.0966635 8:0.83857548 9:-0.52101694 10:-0.39532879 11:-0.61183292 12:0.817926 13:0.33340083 14:1.8191042 15:-0.49707076 16:-1.6074414 17:1.3566224 18:0.73191032 19:-0.63787008 20:0.55504262 21:-0.78877932 22:-1.0373723 23:-0.84968342 24:2.5895994 25:-0.78646556 26:-0.50855321 27:-1.0675637 28:-0.92340593 29:-1.155578 30:-0.89246959 31:0.49358713 32:0.46607591 33:-0.71086231 34:2.51655 35:2.6830969 36:0.96027154 37:-1.1572947 38:-1.2915748 39:1.1381514 40:1.1826321 41:1.0191791 42:2.289945 43:0.55735058 44:-1.3677325 45:1.3615321 46:1.00158 47:-1.1990167 48:2.6072643 49:-0.70191848 50:2.8941711 51:1.8281891 52:1.4311911 53:1.7220703 54:-0.20932596 55:-1.4996793 56:-1.1877821 57:-0.91331408 58:2.5677688 59:-0.93229564 60:-0.52583885 61:-1.1508351 62:-0.97390245 63:-1.0891397 64:-0.66434862 65:2.2085329 66:0.87080305 67:-0.19350081 68:0.97400929 
-0 -0 -0 -0 -0 -0.04931963996281424 0 0 0 1:1.093587 2:-0.61608785 3:-1.2682612 4:1.0806146 5:0.60877573 6:0.48218043 7:-0.45010577 8:0.49864097 9:-0.50028348 10:0.8622834 11:0.71360863 12:-0.54558041 13:-0.042203038 14:0.30152283 15:-0.45388036 16:-0.10409388 17:0.82249488 18:-0.48552807 19:-0.2902758 20:0.66861587 21:-0.42236154 22:0.44967923 23:2.0351854 24:-0.39952085 25:0.77353897 26:-0.31957726 27:0.38962584 28:1.36496 29:-0.086443217 30:0.3155914 31:1.5187825 32:0.47660148 33:0.38950684 34:-0.40724024 35:-0.48813078 36:-1.3722039 37:0.89715223 38:-0.76818497 39:-1.0321365 40:-0.58560824 41:-0.51174721 42:-0.21026196 43:-1.3706824 44:0.62837675 45:-0.90981901 46:-0.58964206 47:-0.71051111 48:-0.11553984 49:0.063403004 50:-0.11347572 51:-0.11429918 52:-0.58991121 53:-0.38237353 54:-0.66575822 55:-0.70682966 56:0.18130642 57:2.8741479 58:-0.41071087 59:0.53040992 60:-0.43526957 61:0.5505326 62:1.6778603 63:0.68381281 64:0.19135297 65:0.059029528 66:-0.15396205 67:-0.23401416 68:-0.82423269 
-0.3052786743823749 -0.3278570143028662 -0.3693973083883037 -0.3881194239093067 -0.336122574417684 -0.4366300511966746 0.1198797445145145 0.08462093990872667 0.1174920886295708 1:0.63785267 2:-2.0586989 3:-2.4364301 4:1.8210262 5:1.8874003 6:-0.42834647 7:-0.5471372 8:-1.0650578 9:-1.9030588 10:-0.2253634 11:1.9470356 12:-0.88175171 13:-0.08891488 14:-0.26032734 15:-0.47992783 16:0.8440759 17:0.12329723 18:-1.2625686 19:0.54623589 20:0.60493631 21:-0.65690515 22:1.1154247 23:1.7651885 24:-0.29872942 25:2.8027687 26:-0.19963137 27:1.4971636 28:2.3906225 29:0.09163373 30:1.2033493 31:1.1708565 32:-0.26868126 33:0.98842966 34:-1.0218503 35:-0.67527099 36:-1.5422315 37:0.9839489 38:-0.86323614 39:-1.1428094 40:-0.68756981 41:-0.64634617 42:-0.38111102 43:-1.5400364 44:-0.24622942 45:-1.0325798 46:-0.7106533 47:-0.79276282 48:-0.41363666 49:-0.43928379 50:-0.28384621 51:-0.16912252 52:-0.63556658 53:-0.27529462 54:-0.62092843 55:-0.59561496 56:1.174227 57:1.0881464 58:-0.43540466 59:1.7088659 60:-0.38486532 61:1.4846374 62:1.861111 63:0.13779371 64:1.0749725 65:0.86614839 66:-0.22503973 67:0.8366434 68:-0.88044127 
-0.09271668551588604 -0.0457388030748152 -0.1049993859678453 -0.1878282254098076 -0.2000426514012139 -0.3378553634715708 0.160601982552569 0.2346995828225238 0.3227205122459556 1:0.85430519 2:-1.2430983 3:-1.6967878 4:1.4265686 5:1.1955124 6:0.096960557 7:-0.48941908 8:-0.18122806 9:-1.1121885 10:-0.20309372 11:1.2248558 12:-0.66603208 13:-0.17024203 14:0.074793836 15:-0.58212562 16:0.31044656 17:0.47313758 18:-0.92576998 19:0.018639182 20:0.63260424 21:-0.56100727 22:0.8749362 23:1.8544335 24:-0.32028135 25:1.5912954 26:-0.27000757 27:0.8700864 28:1.6416843 29:-0.061470374 30:0.72753299 31:1.4893926 32:0.071576573 33:0.61803637 34:-0.74810522 35:-0.64313159 36:-1.8138833 37:0.83613854 38:-1.0487483 39:-1.2562922 40:-0.94266603 41:-0.59038285 42:-0.65887329 43:-1.8265781 44:-0.50649018 45:-1.0226906 46:-0.60685163 47:-0.73565202 48:-0.38738248 49:-0.33885163 50:-0.54367556 51:-0.20630148 52:-0.70053228 53:-0.50143263 54:-0.51767799 55:-0.3379616 56:0.57683961 57:1.1962406 58:-0.40656802 59:1.605341 60:-0.42152139 61:1.4556312 62:1.4397943 63:0.19856483 64:0.66199215 65:0.45993839 66:-0.38357706 67:0.32388718 68:-0.98343136 
-0 -0 -0 -0 -0.01015519235814451 -0.01109604127611403 -0.001701372869169512 0.02187495147664013 0 1:1.0744072 2:0.33669769 3:-0.36305173 4:0.40058446 5:-0.75611493 6:0.92063327 7:-0.34096932 8:1.0743859 9:0.51001412 10:1.4609051 11:-0.15605724 12:0.56724754 13:0.79820908 14:-1.0229515 15:-0.56872572 16:1.0646063 17:-0.1139703 18:-0.23077854 19:0.014475792 20:-0.74758516 21:1.2408282 22:1.3636436 23:0.57067662 24:-0.35789834 25:0.34387451 26:-0.38450979 27:1.5462522 28:0.82230971 29:-0.8816895 30:-0.14154111 31:-0.099174255 32:-0.71063225 33:2.3692904 34:-1.2152365 35:-0.63584534 36:0.75532106 37:1.7277791 38:0.12965103 39:0.34014163 40:0.88685544 41:-0.3507981 42:1.4329718 43:0.85799427 44:0.61153355 45:0.18036417 46:0.35126296 47:0.08176913 48:-0.076535035 49:-0.7303362 50:-1.1084905 51:-1.2232257 52:-0.55199259 53:0.04424375 54:0.2938307 55:1.8428737 56:-0.59982316 57:1.1192057 58:-0.20148249 59:1.4780896 60:-0.39597104 61:-1.0393464 62:1.7783204 63:-0.69711412 64:1.2231081 65:1.3941816 66:-0.63097992 67:-1.0625079 68:-1.0826221 
-0 -0 -0 -0 -0.005941583699264533 -0.001131505945990602 -0 0 0 1:-0.055411878 2:-0.37517431 3:-0.16733191 4:0.038172036 5:-0.99708045 6:-1.0333796 7:-0.032996491 8:-0.5602091 9:-0.6761027 10:0.42638148 11:-1.1336085 12:1.4406878 13:2.1109705 14:-0.89825213 15:-0.69583929 16:0.96818985 17:-0.5317707 18:-0.33037757 19:-0.15308286 20:-1.3549978 21:-0.058593137 22:1.0465063 23:0.002022076 24:-0.5467807 25:-0.013047271 26:-0.46672772 27:0.8842115 28:0.0077520858 29:-0.84405169 30:-0.60168727 31:-0.63788753 32:0.19262374 33:1.0787609 34:-0.66269253 35:-0.56133098 36:0.95882378 37:0.95515369 38:1.3986769 39:1.5765599 40:-0.55296156 41:-0.14965083 42:0.029096611 43:0.4949555 44:-0.74542686 45:1.9544665 46:2.4528289 47:3.0152039 48:-0.26966977 49:0.17903412 50:-0.23507571 51:0.12371225 52:0.13458328 53:-0.042051955 54:2.1390751 55:0.50074879 56:0.39506001 57:-0.49530103 58:-0.49056051 59:0.28156096 60:-0.50688565 61:0.49802399 62:-0.31757593 63:-0.7497636 64:-0.19125594 65:-0.39071834 66:0.47693326 67:0.36077769 68:-0.51628014 
-0 -0 -0 -0 -0 -0.00977835736113687 -0 0 0 1:0.0154607 2:0.3187429 3:0.29036391 4:-0.52598808 5:-1.2346554 6:-0.8799333 7:-0.3140734 8:-0.2332901 9:0.44360204 10:1.4952191 11:-0.32320515 12:0.64551104 13:0.70292612 14:-0.98403911 15:-0.62138376 16:1.1499721 17:-0.067994172 18:-0.2358826 19:-0.27305275 20:-0.64799125 21:1.327655 22:0.97193276 23:-0.49905049 24:-0.6030022 25:-0.46862155 26:-0.49024957 27:0.71769741 28:-0.30723792 29:-1.0111837 30:-0.90725429 31:-0.83302185 32:0.62104919 33:1.3597942 34:-0.24324326 35:-0.041044272 36:0.73351594 37:-0.62939139 38:1.1039538 39:1.0135895 40:0.17750447 41:-0.31175106 42:-0.06156207 43:0.98956997 44:1.1997995 45:0.083097282 46:0.43600599 47:0.035533017 48:-0.1609999 49:-0.68352678 50:-1.0611451 51:-1.3724055 52:-0.43605549 53:-0.73327912 54:0.51896877 55:1.507157 56:0.46251907 57:-0.74647735 58:-0.53854149 59:-0.34739703 60:-0.52375644 61:1.2193015 62:-0.96032155 63:-0.99018187 64:-0.64431833 65:-0.79187664 66:1.7347085 67:1.1665103 68:0.4814828 
-0 -0.001191647378196563 -0 -0 -0 -0 -0 0 0 1:-2.0443215 2:-0.37451804 3:0.74042764 4:-0.55739775 5:-1.0060183 6:-0.61647677 7:0.04610781 8:-1.1849745 9:-0.76986732 10:0.06620251 11:-1.2008402 12:1.3456755 13:1.6574209 14:-1.2922184 15:-0.72412251 16:0.93550317 17:-0.59254044 18:-0.38654719 19:-0.084587448 20:-1.3261215 21:0.1169107 22:0.41011683 23:-0.57466938 24:-0.63147277 25:-0.76088195 26:3.1982552 27:0.33063858 28:-0.6541417 29:-1.1539889 30:-1.1288816 31:-1.0594325 32:-0.81456772 33:0.31362439 34:0.90932841 35:-0.68552958 36:0.95995442 37:-1.0214679 38:1.8386989 39:2.0167647 40:1.2695768 41:-0.067803662 42:-0.98070845 43:0.64945899 44:-0.53897085 45:2.0150033 46:2.1871754 47:2.9969845 48:-0.51531243 49:0.10553101 50:-0.62011551 51:-0.84941302 52:0.20719254 53:0.74842711 54:3.4036073 55:-0.93469695 56:1.6807762 57:-0.52803225 58:-0.57306012 59:-0.90596008 60:2.6414807 61:1.6399824 62:-0.50501154 63:-1.1175402 64:-1.0977326 65:-1.0422541 66:-0.73756559 67:1.7531645 68:1.2721452 
-0 -0 -0 -0 -0 -0 -0 0.0108035152649238 0 1:0.92534768 2:-0.61713748 3:-0.35032461 4:0.83058726 5:0.69968005 6:0.70167403 7:-0.45823725 8:0.14033162 9:-0.49642877 10:0.08073072 11:0.59749173 12:0.033263937 13:0.58464041 14:-0.99140145 15:-0.5533406 16:1.2678921 17:-0.10569063 18:-1.0470112 19:0.29989654 20:-0.081786611 21:0.20526459 22:0.84093882 23:0.22343378 24:1.7674927 25:0.10838495 26:-0.40714376 27:0.80020161 28:0.13192293 29:-0.83858477 30:-0.6610076 31:-0.57210941 32:-0.7671785 33:0.50565361 34:0.73097262 35:-0.77815199 36:-1.3710487 37:-0.14665542 38:-0.96063927 39:-0.89879609 40:-1.1513832 41:-0.53104709 42:-0.44669226 43:-1.3773022 44:-0.67278985 45:-0.85343749 46:-0.29298429 47:-0.30825729 48:-0.39672489 49:-0.60758797 50:-0.89164474 51:-0.90878688 52:-0.77831632 53:-0.95411846 54:-0.63347178 55:-0.060778636 56:-0.028334224 57:-0.16016038 58:0.24863389 59:-0.13669364 60:-0.46949654 61:0.24973643 62:-0.37150178 63:-0.89221215 64:-0.57673595 65:-0.59727304 66:-0.73202123 67:-0.41467088 68:-0.41874261 
-0.1731531251152223 -0.08014296860084606 -0.1303822556469529 -0.1466397309715736 -0.1208592620311414 -0.1085331429590959 -0.1040302961360512 0.6390136250665852 0.435786870413796 1:0.69093179 2:-2.0589458 3:-1.7883371 4:1.6010017 5:2.1144498 6:-0.19688666 7:-0.55515526 8:-1.1486633 9:-1.9060907 10:-0.53883973 11:1.8450116 12:-0.72859398 13:0.11331384 14:-0.39125482 15:-0.29699318 16:1.1389917 17:-0.14097805 18:-1.4049135 19:0.58828137 20:0.31739397 21:-0.57310764 22:0.80266447 23:1.1396681 24:1.6206479 25:1.1328627 26:-0.3050921 27:1.1309827 28:1.240778 29:-0.29006703 30:0.22014649 31:0.47888099 32:-0.68321885 33:0.59191291 34:0.43941853 35:-0.64128954 36:-1.542543 37:0.58232876 38:-0.95441403 39:-1.0664323 40:-1.0105943 41:-0.66186354 42:-0.58752729 43:-1.5479854 44:-0.82620451 45:-0.99933671 46:-0.5419611 47:-0.38425533 48:-0.43167271 49:-0.51569753 50:-0.90510067 51:-0.50512851 52:-0.82302404 53:-0.66930912 54:-0.46414604 55:0.026951453 56:0.39367285 57:0.68325645 58:-0.0085895577 59:0.78608494 60:-0.43133705 61:1.3197222 62:0.77414863 63:-0.27150098 64:0.24698562 65:0.37696391 66:-0.66983766 67:0.14681333 68:-0.69990042 
-0.2375954911021514 -0.1748053130108132 -0.1470124535554055 -0.1338955130616073 -0.2617750548792482 -0.2020757505143916 -0.1821129804148741 0.09538765905060283 0.1433515179704588 1:0.8220279 2:-1.244874 3:-1.6515561 4:1.4469279 5:1.2499394 6:-0.011130271 7:-0.50991527 8:-0.42010096 9:-1.1138545 10:-0.98749343 11:1.1550143 12:-0.48943214 13:0.39911028 14:-0.77313594 15:-0.52598866 16:1.1393994 17:-0.088007196 18:-1.2231772 19:0.38797557 20:0.19373802 21:-0.049076506 22:1.7112852 23:1.8721498 24:-0.30498729 25:1.9851805 26:-0.29509348 27:1.6965103 28:1.9078109 29:0.22639828 30:0.81890521 31:0.7789024 32:-0.60643848 33:1.4366388 34:-1.2112838 35:-0.91505408 36:-1.8142453 37:0.22311526 38:-1.0412321 39:-1.2679865 40:-1.1737984 41:-0.62552949 42:-0.81649349 43:-1.8396552 44:-0.61646088 45:-1.0431443 46:-0.74854961 47:-0.57857453 48:-0.37318013 49:-0.47447724 50:-0.89342514 51:-0.77731228 52:-0.89102576 53:-0.81395518 54:-0.50394913 55:-0.21426984 56:1.1654971 57:1.5462825 58:-0.41583694 59:1.117738 60:-0.42736826 61:0.71497795 62:1.1708425 63:0.49609969 64:0.96976101 65:1.6075064 66:-0.62220546 67:0.62012234 68:-1.1676152 
-0 -0 -0 -0 -0 -0.008464424777114841 -0 -0 0 1:0.15720586 2:-0.3738713 3:0.15704309 4:0.0065612048 5:-0.72731966 6:-0.74067053 7:0.071271898 8:-0.4637412 9:-0.61920649 10:-0.42026948 11:-0.73820264 12:1.7915921 13:1.4037823 14:-0.42855262 15:-0.97866207 16:-0.45611065 17:0.23233133 18:0.037238388 19:-0.59594817 20:-0.072992795 21:0.24982644 22:0.4309185 23:-0.25156817 24:-0.60230357 25:-0.48173244 26:-0.47622672 27:-0.9377614 28:0.0744352 29:0.89984308 30:-0.92540698 31:-0.79581229 32:1.2508655 33:0.65970336 34:0.27508746 35:-0.64033973 36:0.96106871 37:0.53767009 38:1.250795 39:1.5450262 40:0.19720527 41:-0.041767033 42:0.18501719 43:0.6369236 44:-1.0679024 45:1.4815864 46:2.6202439 47:1.9115106 48:-1.0445129 49:-0.60534094 50:1.5194966 51:-1.4683954 52:0.14493441 53:2.3907636 54:-0.29632109 55:2.6251435 56:1.4308888 57:-0.77321906 58:-0.54436555 59:-0.45336608 60:-0.50102646 61:-1.0677392 62:0.43887253 63:1.4839182 64:-0.79802718 65:-0.76569994 66:1.8016568 67:1.3539763 68:0.47781965 
-0 -0 -0 -0 -0 -0 -0 -0 0.003388803765595454 1:1.1311763 2:1.2666251 3:0.76062796 4:0.0995274 5:-0.65503823 6:1.4761302 7:-0.29843756 8:2.1523764 9:1.3296718 10:-0.35905627 11:-0.69758804 12:0.4244105 13:0.92878907 14:-0.86445568 15:-0.64796426 16:0.16187641 17:0.89542493 18:0.010315439 19:-1.571185 20:0.2315808 21:2.6273699 22:1.5660208 23:-0.17614984 24:0.28151368 25:-0.6796856 26:-0.50424106 27:-0.98531772 28:-0.79415313 29:1.4491438 30:-0.97586482 31:-0.96375719 32:-0.79555421 33:1.3807875 34:-0.48024187 35:1.3482985 36:-0.044824343 37:-0.82210422 38:-1.1770655 39:-0.11174086 40:-0.54653753 41:0.013522978 42:0.88095478 43:-0.041464474 44:0.49730752 45:-0.1000919 46:-0.6335342 47:-0.10198785 48:0.74386458 49:-0.37120154 50:-0.47478403 51:-0.13671913 52:-0.28469645 53:0.38606242 54:-0.72410732 55:1.3268292 56:0.96975679 57:-0.39813881 58:1.5807938 59:-0.8486489 60:-0.52674 61:-1.119509 62:-0.9303421 63:0.70962028 64:-0.88625121 65:-1.0549382 66:-0.74812901 67:0.81881482 68:0.98819761 
-0 -0 -0 -0 -0 -0 -0 -0 0.04763457186660192 1:0.96172046 2:-0.61559022 3:-0.21443935 4:0.88352688 5:1.0037873 6:0.7573785 7:-0.43003958 8:0.30570516 9:-0.50895162 10:-0.31354395 11:0.76432246 12:-0.33721577 13:0.32506346 14:-0.55977312 15:-0.58636018 16:0.61804385 17:0.4215477 18:-0.71891402 19:-0.5044468 20:0.40105717 21:1.0025564 22:0.80343837 23:0.22367815 24:1.9282844 25:-0.07502477 26:-0.44817992 27:-0.57127673 28:-0.24611095 29:0.13098346 30:-0.73421011 31:-0.61951671 32:-0.76200687 33:0.47196067 34:0.89147606 35:-0.82431896 36:-1.3715692 37:-0.22339003 38:-0.97331796 39:-0.98563914 40:-1.1184877 41:-0.48512318 42:-0.33757058 43:-1.3755831 44:0.077058925 45:-0.83537578 46:-0.62518063 47:-0.36995953 48:0.01447558 49:-0.48134323 50:-0.84430344 51:-0.44414878 52:-0.79331578 53:-0.12795415 54:-0.79702209 55:0.23346311 56:-0.088600919 57:-0.24385756 58:0.26914266 59:-0.43304841 60:-0.49302048 61:-0.69621111 62:-0.41059134 63:-0.35354574 64:-0.66277558 65:-0.64214377 66:-0.72942012 67:0.24199739 68:-0.3950292 
-0.1675754839839012 -0.06893113500585335 -0.1270978310832765 -0.1211039075019594 -0.07688193833571376 -0.1084005574727433 -0.08475976820527498 -0.594888811995786 0.6509010806944455 1:0.62763423 2:-2.0585561 3:-1.6463061 4:1.5835529 5:2.2045176 6:-0.15182752 7:-0.54810998 8:-1.1100761 9:-1.9095645 10:-0.59695883 11:1.9128621 12:-0.89377059 13:-0.1789617 14:-0.40952324 15:-0.41288836 16:1.0213647 17:0.0032787649 18:-1.3805727 19:0.31908904 20:0.45386745 21:-0.35019353 22:0.60328736 23:1.1801808 24:1.8533188 25:1.4670644 26:-0.32658981 27:0.36047253 28:1.0774923 29:-0.10575128 30:0.32601944 31:0.099053399 32:-0.6662769 33:0.46095045 34:0.66377183 35:-0.60471998 36:-1.5418048 37:0.47700566 38:-0.95854391 39:-1.1335833 40:-0.97663884 41:-0.64374474 42:-0.49225825 43:-1.5432189 44:-0.56468401 45:-1.0116817 46:-0.67233768 47:-0.52753318 48:-0.50534821 49:-0.50429544 50:-0.75331242 51:-0.31061498 52:-0.72204223 53:-0.17007908 54:-0.7919287 55:0.40107858 56:0.35421643 57:0.48908397 58:0.016995044 59:1.0637945 60:-0.44279494 61:0.46844637 62:0.64751812 63:-0.14083379 64:0.11941606 65:0.28826493 66:-0.65871058 67:0.17871538 68:-0.6734971 
-0.2201846623744725 -0.1199499375878889 -0.1370964743613635 -0.1344755735393053 -0.1918111337788626 -0.3852734529031762 -0.2394883039363838 -0.1721909388629659 0.1429597206940935 1:0.77539612 2:-1.2433815 3:-1.696908 4:1.3681663 5:1.1291815 6:0.0067108753 7:-0.49859728 8:-0.30985193 9:-1.1086229 10:-0.070193803 11:1.1902994 12:-0.36328137 13:0.044924685 14:-0.44281998 15:-0.51753312 16:0.77657097 17:0.20135459 18:-0.98085662 19:-0.044207245 20:0.55099935 21:0.29054736 22:1.7558872 23:1.7892298 24:-0.19967376 25:1.6698034 26:-0.28053063 27:0.73214124 28:1.8637032 29:1.1716938 30:0.63510242 31:0.57263085 32:-0.62966728 33:1.5784964 34:-1.1107687 35:-0.58897746 36:-1.8142188 37:0.75773132 38:-1.0999098 39:-1.2006609 40:-1.0825252 41:-0.60125744 42:-0.7437457 43:-1.8270196 44:-0.33023527 45:-1.0357429 46:-0.41865208 47:-0.5581201 48:-0.61193706 49:-0.6594354 50:-0.87242572 51:-0.41786603 52:-0.85512855 53:-0.32137106 54:-0.58333667 55:-0.055070339 56:0.73736744 57:1.1881682 58:-0.36133257 59:1.3997533 60:-0.407871 61:0.79050308 62:2.0310164 63:0.67773909 64:0.7853349 65:0.47486958 66:-0.61503443 67:0.50021763 68:-1.1100341 
-0 -0 -0 -0 -0 -0 -0.007873814310961569 -0 -0 1:-1.2290618 2:-0.36529196 3:0.77950532 4:-0.29084944 5:-0.3430665 6:-0.54350225 7:0.33397839 8:-0.35119532 9:-0.57821892 10:-0.56456207 11:-0.31666628 12:1.6852766 13:0.53583098 14:0.29352537 15:-1.8067438 16:-1.0722495 17:0.97769776 18:-0.88381582 19:-1.6644103 20:0.48567353 21:-0.35139713 22:0.38964907 23:-0.56219136 24:-0.62985334 25:-0.72974619 26:-0.50479284 27:-1.0457399 28:-0.91364631 29:-1.1629124 30:-1.010974 31:-0.82149791 32:2.1121347 33:0.44263813 34:0.97441541 35:0.82922296 36:0.97584997 37:-1.1033826 38:0.61251268 39:1.7088341 40:0.66662123 41:0.23004857 42:0.36692453 43:0.62686244 44:-0.6839832 45:1.2669341 46:2.2829316 47:0.18548496 48:1.013097 49:0.98888614 50:2.4986717 51:2.4186744 52:-0.63869258 53:2.9810529 54:-0.53074803 55:1.1079818 56:1.4570485 57:-0.63775875 58:-0.57164574 59:-0.84509639 60:-0.52268128 61:-1.1099469 62:-0.91604883 63:-1.1690564 64:-0.87163308 65:-0.65971803 66:2.8830134 67:1.8714707 68:1.3704175 
-0 -0 -0 -0 -0 -0 -0 -0.02763582801557457 -0.1912126831459754 1:1.1861612 2:-0.6178487 3:-0.46622699 4:0.95789866 5:1.067841 6:0.67428863 7:-0.43345311 8:0.49864097 9:-0.49735665 10:-0.22223983 11:0.92244257 12:-0.39083075 13:0.15147303 14:-0.18008718 15:-0.88448684 16:0.45859177 17:0.95515734 18:-1.2248862 19:-0.58251842 20:1.2136673 21:0.016206141 22:0.82847859 23:0.27291112 24:1.6038388 25:0.051256643 26:-0.42793071 27:-0.34157496 28:-0.00061474437 29:-0.64347975 30:-0.53132535 31:-0.3642658 32:-0.74026326 33:0.66433698 34:0.56200179 35:-0.50112377 36:-1.3728269 37:0.26310898 38:-0.95289815 39:-1.0765261 40:-1.0461872 41:-0.48441468 42:-0.21026196 43:-1.3763243 44:-0.22028814 45:-0.9751177 46:-0.59917027 47:-0.41717223 48:-0.24881188 49:-0.25696763 50:-0.7887518 51:0.26061412 52:-0.93435528 53:0.18985374 54:-0.53585339 55:-0.19456481 56:0.029840573 57:-0.27445941 58:0.2233379 59:0.014503979 60:-0.48596209 61:-0.24482908 62:-0.072537801 63:-0.32930622 64:-0.53333039 65:-0.5764111 66:-0.71136562 67:0.089887055 68:-0.44182594 
-0.1533322553192104 -0.1063408171519345 -0.1473040593520861 -0.1774035217322049 -0.09472254536840338 -0.1075633492997366 -0.1395487459356418 -0.442757561481438 -0.6506992523084004 1:0.62933731 2:-2.0591097 3:-1.8152267 4:1.6219805 5:2.209132 6:-0.22420129 7:-0.55020003 8:-1.0650578 9:-1.9013708 10:-0.44395 11:2.020491 12:-0.81127653 13:-0.18031795 14:-0.39180928 15:-0.61994241 16:1.0256052 17:0.15102624 18:-1.4727649 19:0.44452931 20:0.69886477 21:-0.71703108 22:1.0226556 23:1.7123484 24:1.3937113 25:1.9267565 26:-0.30166438 27:0.67864627 28:1.2468083 29:-0.1612594 30:0.35346318 31:0.41565654 32:-0.65158204 33:0.85563169 34:0.21182924 35:-0.5598627 36:-1.5432027 37:0.63803578 38:-1.0278037 39:-1.1701437 40:-0.97757546 41:-0.64564891 42:-0.38111102 43:-1.5548264 44:-0.84146201 45:-1.0614761 46:-0.71278935 47:-0.53931254 48:-0.53026598 49:-0.28555068 50:-0.61957693 51:0.10384497 52:-0.97581093 53:0.02250964 54:-0.60675255 55:-0.32013833 56:0.45094376 57:1.1922569 58:-0.077498218 59:1.3457925 60:-0.42692291 61:1.2034983 62:0.54905601 63:-0.18257428 64:0.26497491 65:0.23913331 66:-0.64505453 67:0.63275964 68:-0.77287879 
-0.1612982273852885 -0.09624334911717818 -0.1173380042766377 -0.1645268928822256 -0.1417130961082884 -0.2045444760614521 -0.3039635659698062 -0.1087449988872421 -0.002972241566360362 1:1.0232339 2:-1.2435089 3:-1.7122098 4:1.4677688 5:1.1175997 6:-0.010730244 7:-0.48621301 8:-0.18122806 9:-1.1210285 10:-0.5380259 11:1.2273253 12:-0.52861862 13:-0.11956393 14:-0.22552304 15:-0.7090247 16:0.67396944 17:0.66897422 18:-1.379861 19:-0.20882793 20:1.0130501 21:-0.2418639 22:1.8099778 23:2.2330119 24:-0.35035898 25:1.5750152 26:-0.28488236 27:0.8954685 28:1.61218 29:-0.056586622 30:0.77158852 31:0.67695262 32:-0.61962587 33:1.3996508 34:-1.2294075 35:-0.47268924 36:-1.8139015 37:0.93318301 38:-1.0197152 39:-1.2677995 40:-1.0328105 41:-0.58697052 42:-0.65887329 43:-1.8246037 44:-0.22891333 45:-1.0146276 46:-0.58777933 47:-0.74520675 48:-0.35122414 49:-0.29406266 50:-0.77836184 51:-0.11801958 52:-1.045762 53:-0.35569422 54:-0.46595377 55:-0.3102804 56:1.244636 57:1.6015012 58:-0.43730523 59:1.1114723 60:-0.39716476 61:1.1461543 62:0.89491076 63:-0.0018384237 64:1.0523459 65:0.67875119 66:-0.64341321 67:0.11324768 68:-1.1690464 
